digraph Tree {
node [shape=box, style="rounded", color="black", fontname=helvetica] ;
edge [fontname=helvetica] ;
0 [label="Credit_History_ <= 0.5\ngini = 0.4\nsamples = 261\nvalue = [107, 304]"] ;
1 [label="Dependents_0 <= 0.5\ngini = 0.2\nsamples = 34\nvalue = [49, 5]"] ;
0 -> 1 [labeldistance=2.5, labelangle=45, headlabel="True"] ;
2 [label="gini = 0.0\nsamples = 13\nvalue = [19, 0]"] ;
1 -> 2 ;
3 [label="LoanAmount_Log <= 4.8\ngini = 0.2\nsamples = 21\nvalue = [30, 5]"] ;
1 -> 3 ;
4 [label="Property_Area_U <= 0.5\ngini = 0.1\nsamples = 13\nvalue = [20, 1]"] ;
3 -> 4 ;
5 [label="Loan_Amount_Term <= 270.0\ngini = 0.2\nsamples = 8\nvalue = [10, 1]"] ;
4 -> 5 ;
6 [label="gini = 0.0\nsamples = 1\nvalue = [0, 1]"] ;
5 -> 6 ;
7 [label="gini = 0.0\nsamples = 7\nvalue = [10, 0]"] ;
5 -> 7 ;
8 [label="gini = 0.0\nsamples = 5\nvalue = [10, 0]"] ;
4 -> 8 ;
9 [label="LoanAmount_Log <= 4.9\ngini = 0.4\nsamples = 8\nvalue = [10, 4]"] ;
3 -> 9 ;
10 [label="gini = 0.0\nsamples = 1\nvalue = [0, 2]"] ;
9 -> 10 ;
11 [label="LoanAmount_Log <= 4.9\ngini = 0.3\nsamples = 7\nvalue = [10, 2]"] ;
9 -> 11 ;
12 [label="TotalIncome <= 9488.0\ngini = 0.5\nsamples = 4\nvalue = [3, 2]"] ;
11 -> 12 ;
13 [label="gini = 0.0\nsamples = 3\nvalue = [3, 0]"] ;
12 -> 13 ;
14 [label="gini = 0.0\nsamples = 1\nvalue = [0, 2]"] ;
12 -> 14 ;
15 [label="gini = 0.0\nsamples = 3\nvalue = [7, 0]"] ;
11 -> 15 ;
16 [label="Married_ <= 0.5\ngini = 0.3\nsamples = 227\nvalue = [58, 299]"] ;
0 -> 16 [labeldistance=2.5, labelangle=-45, headlabel="False"] ;
17 [label="Gender_ <= 0.5\ngini = 0.3\nsamples = 86\nvalue = [28, 110]"] ;
16 -> 17 ;
18 [label="Education_ <= 0.5\ngini = 0.2\nsamples = 35\nvalue = [5, 49]"] ;
17 -> 18 ;
19 [label="Dependents_0 <= 0.5\ngini = 0.2\nsamples = 28\nvalue = [4, 41]"] ;
18 -> 19 ;
20 [label="Loan_Amount_Term <= 198.0\ngini = 0.3\nsamples = 8\nvalue = [2, 11]"] ;
19 -> 20 ;
21 [label="gini = 0.0\nsamples = 1\nvalue = [1, 0]"] ;
20 -> 21 ;
22 [label="Dependents_3+ <= 0.5\ngini = 0.2\nsamples = 7\nvalue = [1, 11]"] ;
20 -> 22 ;
23 [label="TotalIncome <= 3070.5\ngini = 0.2\nsamples = 6\nvalue = [1, 10]"] ;
22 -> 23 ;
24 [label="gini = 0.0\nsamples = 1\nvalue = [1, 0]"] ;
23 -> 24 ;
25 [label="gini = 0.0\nsamples = 5\nvalue = [0, 10]"] ;
23 -> 25 ;
26 [label="gini = 0.0\nsamples = 1\nvalue = [0, 1]"] ;
22 -> 26 ;
27 [label="Property_Area_R <= 0.5\ngini = 0.1\nsamples = 20\nvalue = [2, 30]"] ;
19 -> 27 ;
28 [label="gini = 0.0\nsamples = 15\nvalue = [0, 21]"] ;
27 -> 28 ;
29 [label="TotalIncome <= 3353.0\ngini = 0.3\nsamples = 5\nvalue = [2, 9]"] ;
27 -> 29 ;
30 [label="gini = 0.0\nsamples = 1\nvalue = [2, 0]"] ;
29 -> 30 ;
31 [label="gini = 0.0\nsamples = 4\nvalue = [0, 9]"] ;
29 -> 31 ;
32 [label="Self_Employed_ <= 0.5\ngini = 0.2\nsamples = 7\nvalue = [1, 8]"] ;
18 -> 32 ;
33 [label="gini = 0.0\nsamples = 5\nvalue = [0, 7]"] ;
32 -> 33 ;
34 [label="Property_Area_SU <= 0.5\ngini = 0.5\nsamples = 2\nvalue = [1, 1]"] ;
32 -> 34 ;
35 [label="gini = 0.0\nsamples = 1\nvalue = [0, 1]"] ;
34 -> 35 ;
36 [label="gini = 0.0\nsamples = 1\nvalue = [1, 0]"] ;
34 -> 36 ;
37 [label="Loan_Amount_Term <= 270.0\ngini = 0.4\nsamples = 51\nvalue = [23, 61]"] ;
17 -> 37 ;
38 [label="gini = 0.0\nsamples = 3\nvalue = [0, 4]"] ;
37 -> 38 ;
39 [label="Dependents_3+ <= 0.5\ngini = 0.4\nsamples = 48\nvalue = [23, 57]"] ;
37 -> 39 ;
40 [label="Property_Area_SU <= 0.5\ngini = 0.4\nsamples = 47\nvalue = [23, 54]"] ;
39 -> 40 ;
41 [label="TotalIncome <= 2634.0\ngini = 0.5\nsamples = 29\nvalue = [17, 29]"] ;
40 -> 41 ;
42 [label="gini = 0.0\nsamples = 3\nvalue = [5, 0]"] ;
41 -> 42 ;
43 [label="LoanAmount_Log <= 4.3\ngini = 0.4\nsamples = 26\nvalue = [12, 29]"] ;
41 -> 43 ;
44 [label="gini = 0.0\nsamples = 3\nvalue = [0, 7]"] ;
43 -> 44 ;
45 [label="Dependents_0 <= 0.5\ngini = 0.5\nsamples = 23\nvalue = [12, 22]"] ;
43 -> 45 ;
46 [label="TotalIncome <= 5434.5\ngini = 0.4\nsamples = 4\nvalue = [2, 4]"] ;
45 -> 46 ;
47 [label="LoanAmount_Log <= 4.8\ngini = 0.4\nsamples = 2\nvalue = [2, 1]"] ;
46 -> 47 ;
48 [label="gini = 0.0\nsamples = 1\nvalue = [2, 0]"] ;
47 -> 48 ;
49 [label="gini = 0.0\nsamples = 1\nvalue = [0, 1]"] ;
47 -> 49 ;
50 [label="gini = 0.0\nsamples = 2\nvalue = [0, 3]"] ;
46 -> 50 ;
51 [label="Property_Area_U <= 0.5\ngini = 0.5\nsamples = 19\nvalue = [10, 18]"] ;
45 -> 51 ;
52 [label="Self_Employed_ <= 0.5\ngini = 0.4\nsamples = 9\nvalue = [4, 9]"] ;
51 -> 52 ;
53 [label="TotalIncome <= 4501.0\ngini = 0.4\nsamples = 8\nvalue = [4, 8]"] ;
52 -> 53 ;
54 [label="gini = 0.0\nsamples = 2\nvalue = [0, 2]"] ;
53 -> 54 ;
55 [label="LoanAmount_Log <= 4.6\ngini = 0.5\nsamples = 6\nvalue = [4, 6]"] ;
53 -> 55 ;
56 [label="gini = 0.0\nsamples = 1\nvalue = [0, 2]"] ;
55 -> 56 ;
57 [label="TotalIncome <= 5240.0\ngini = 0.5\nsamples = 5\nvalue = [4, 4]"] ;
55 -> 57 ;
58 [label="gini = 0.0\nsamples = 1\nvalue = [2, 0]"] ;
57 -> 58 ;
59 [label="Education_ <= 0.5\ngini = 0.4\nsamples = 4\nvalue = [2, 4]"] ;
57 -> 59 ;
60 [label="gini = 0.0\nsamples = 1\nvalue = [0, 2]"] ;
59 -> 60 ;
61 [label="LoanAmount_Log <= 4.8\ngini = 0.5\nsamples = 3\nvalue = [2, 2]"] ;
59 -> 61 ;
62 [label="TotalIncome <= 6560.0\ngini = 0.4\nsamples = 2\nvalue = [1, 2]"] ;
61 -> 62 ;
63 [label="gini = 0.0\nsamples = 1\nvalue = [0, 2]"] ;
62 -> 63 ;
64 [label="gini = 0.0\nsamples = 1\nvalue = [1, 0]"] ;
62 -> 64 ;
65 [label="gini = 0.0\nsamples = 1\nvalue = [1, 0]"] ;
61 -> 65 ;
66 [label="gini = 0.0\nsamples = 1\nvalue = [0, 1]"] ;
52 -> 66 ;
67 [label="Self_Employed_ <= 0.5\ngini = 0.5\nsamples = 10\nvalue = [6, 9]"] ;
51 -> 67 ;
68 [label="Loan_Amount_Term <= 420.0\ngini = 0.5\nsamples = 9\nvalue = [6, 7]"] ;
67 -> 68 ;
69 [label="LoanAmount_Log <= 4.6\ngini = 0.5\nsamples = 8\nvalue = [5, 7]"] ;
68 -> 69 ;
70 [label="LoanAmount_Log <= 4.3\ngini = 0.4\nsamples = 4\nvalue = [3, 1]"] ;
69 -> 70 ;
71 [label="gini = 0.0\nsamples = 1\nvalue = [0, 1]"] ;
70 -> 71 ;
72 [label="gini = 0.0\nsamples = 3\nvalue = [3, 0]"] ;
70 -> 72 ;
73 [label="LoanAmount_Log <= 5.0\ngini = 0.4\nsamples = 4\nvalue = [2, 6]"] ;
69 -> 73 ;
74 [label="gini = 0.0\nsamples = 2\nvalue = [0, 5]"] ;
73 -> 74 ;
75 [label="LoanAmount_Log <= 5.0\ngini = 0.4\nsamples = 2\nvalue = [2, 1]"] ;
73 -> 75 ;
76 [label="gini = 0.0\nsamples = 1\nvalue = [2, 0]"] ;
75 -> 76 ;
77 [label="gini = 0.0\nsamples = 1\nvalue = [0, 1]"] ;
75 -> 77 ;
78 [label="gini = 0.0\nsamples = 1\nvalue = [1, 0]"] ;
68 -> 78 ;
79 [label="gini = 0.0\nsamples = 1\nvalue = [0, 2]"] ;
67 -> 79 ;
80 [label="Dependents_2 <= 0.5\ngini = 0.3\nsamples = 18\nvalue = [6, 25]"] ;
40 -> 80 ;
81 [label="LoanAmount_Log <= 5.0\ngini = 0.3\nsamples = 17\nvalue = [6, 23]"] ;
80 -> 81 ;
82 [label="gini = 0.0\nsamples = 11\nvalue = [0, 19]"] ;
81 -> 82 ;
83 [label="TotalIncome <= 7745.5\ngini = 0.5\nsamples = 6\nvalue = [6, 4]"] ;
81 -> 83 ;
84 [label="gini = 0.0\nsamples = 2\nvalue = [5, 0]"] ;
83 -> 84 ;
85 [label="Dependents_0 <= 0.5\ngini = 0.3\nsamples = 4\nvalue = [1, 4]"] ;
83 -> 85 ;
86 [label="gini = 0.0\nsamples = 1\nvalue = [1, 0]"] ;
85 -> 86 ;
87 [label="gini = 0.0\nsamples = 3\nvalue = [0, 4]"] ;
85 -> 87 ;
88 [label="gini = 0.0\nsamples = 1\nvalue = [0, 2]"] ;
80 -> 88 ;
89 [label="gini = 0.0\nsamples = 1\nvalue = [0, 3]"] ;
39 -> 89 ;
90 [label="Property_Area_SU <= 0.5\ngini = 0.2\nsamples = 141\nvalue = [30, 189]"] ;
16 -> 90 ;
91 [label="LoanAmount_Log <= 4.9\ngini = 0.3\nsamples = 82\nvalue = [26, 102]"] ;
90 -> 91 ;
92 [label="Dependents_2 <= 0.5\ngini = 0.4\nsamples = 47\nvalue = [20, 52]"] ;
91 -> 92 ;
93 [label="Property_Area_U <= 0.5\ngini = 0.4\nsamples = 42\nvalue = [19, 43]"] ;
92 -> 93 ;
94 [label="Dependents_1 <= 0.5\ngini = 0.5\nsamples = 17\nvalue = [10, 11]"] ;
93 -> 94 ;
95 [label="TotalIncome <= 3625.5\ngini = 0.5\nsamples = 14\nvalue = [7, 10]"] ;
94 -> 95 ;
96 [label="gini = 0.0\nsamples = 2\nvalue = [2, 0]"] ;
95 -> 96 ;
97 [label="Dependents_3+ <= 0.5\ngini = 0.4\nsamples = 12\nvalue = [5, 10]"] ;
95 -> 97 ;
98 [label="TotalIncome <= 4552.0\ngini = 0.5\nsamples = 10\nvalue = [5, 8]"] ;
97 -> 98 ;
99 [label="gini = 0.0\nsamples = 3\nvalue = [0, 5]"] ;
98 -> 99 ;
100 [label="TotalIncome <= 5048.5\ngini = 0.5\nsamples = 7\nvalue = [5, 3]"] ;
98 -> 100 ;
101 [label="gini = 0.0\nsamples = 3\nvalue = [4, 0]"] ;
100 -> 101 ;
102 [label="LoanAmount_Log <= 4.9\ngini = 0.4\nsamples = 4\nvalue = [1, 3]"] ;
100 -> 102 ;
103 [label="gini = 0.0\nsamples = 2\nvalue = [0, 2]"] ;
102 -> 103 ;
104 [label="TotalIncome <= 5697.5\ngini = 0.5\nsamples = 2\nvalue = [1, 1]"] ;
102 -> 104 ;
105 [label="gini = 0.0\nsamples = 1\nvalue = [1, 0]"] ;
104 -> 105 ;
106 [label="gini = 0.0\nsamples = 1\nvalue = [0, 1]"] ;
104 -> 106 ;
107 [label="gini = 0.0\nsamples = 2\nvalue = [0, 2]"] ;
97 -> 107 ;
108 [label="Education_ <= 0.5\ngini = 0.4\nsamples = 3\nvalue = [3, 1]"] ;
94 -> 108 ;
109 [label="gini = 0.0\nsamples = 1\nvalue = [1, 0]"] ;
108 -> 109 ;
110 [label="TotalIncome <= 7109.5\ngini = 0.4\nsamples = 2\nvalue = [2, 1]"] ;
108 -> 110 ;
111 [label="gini = 0.0\nsamples = 1\nvalue = [0, 1]"] ;
110 -> 111 ;
112 [label="gini = 0.0\nsamples = 1\nvalue = [2, 0]"] ;
110 -> 112 ;
113 [label="LoanAmount_Log <= 4.9\ngini = 0.3\nsamples = 25\nvalue = [9, 32]"] ;
93 -> 113 ;
114 [label="Dependents_0 <= 0.5\ngini = 0.3\nsamples = 24\nvalue = [7, 32]"] ;
113 -> 114 ;
115 [label="Education_ <= 0.5\ngini = 0.4\nsamples = 10\nvalue = [6, 12]"] ;
114 -> 115 ;
116 [label="TotalIncome <= 3651.5\ngini = 0.5\nsamples = 6\nvalue = [3, 5]"] ;
115 -> 116 ;
117 [label="gini = 0.0\nsamples = 2\nvalue = [0, 3]"] ;
116 -> 117 ;
118 [label="LoanAmount_Log <= 4.8\ngini = 0.5\nsamples = 4\nvalue = [3, 2]"] ;
116 -> 118 ;
119 [label="Dependents_3+ <= 0.5\ngini = 0.4\nsamples = 3\nvalue = [3, 1]"] ;
118 -> 119 ;
120 [label="gini = 0.0\nsamples = 2\nvalue = [3, 0]"] ;
119 -> 120 ;
121 [label="gini = 0.0\nsamples = 1\nvalue = [0, 1]"] ;
119 -> 121 ;
122 [label="gini = 0.0\nsamples = 1\nvalue = [0, 1]"] ;
118 -> 122 ;
123 [label="LoanAmount_Log <= 4.9\ngini = 0.4\nsamples = 4\nvalue = [3, 7]"] ;
115 -> 123 ;
124 [label="TotalIncome <= 4515.5\ngini = 0.5\nsamples = 2\nvalue = [3, 3]"] ;
123 -> 124 ;
125 [label="gini = 0.0\nsamples = 1\nvalue = [3, 0]"] ;
124 -> 125 ;
126 [label="gini = 0.0\nsamples = 1\nvalue = [0, 3]"] ;
124 -> 126 ;
127 [label="gini = 0.0\nsamples = 2\nvalue = [0, 4]"] ;
123 -> 127 ;
128 [label="LoanAmount_Log <= 4.7\ngini = 0.1\nsamples = 14\nvalue = [1, 20]"] ;
114 -> 128 ;
129 [label="TotalIncome <= 5739.5\ngini = 0.3\nsamples = 5\nvalue = [1, 4]"] ;
128 -> 129 ;
130 [label="gini = 0.0\nsamples = 4\nvalue = [0, 4]"] ;
129 -> 130 ;
131 [label="gini = 0.0\nsamples = 1\nvalue = [1, 0]"] ;
129 -> 131 ;
132 [label="gini = 0.0\nsamples = 9\nvalue = [0, 16]"] ;
128 -> 132 ;
133 [label="gini = 0.0\nsamples = 1\nvalue = [2, 0]"] ;
113 -> 133 ;
134 [label="LoanAmount_Log <= 4.8\ngini = 0.2\nsamples = 5\nvalue = [1, 9]"] ;
92 -> 134 ;
135 [label="gini = 0.0\nsamples = 3\nvalue = [0, 8]"] ;
134 -> 135 ;
136 [label="TotalIncome <= 4631.5\ngini = 0.5\nsamples = 2\nvalue = [1, 1]"] ;
134 -> 136 ;
137 [label="gini = 0.0\nsamples = 1\nvalue = [1, 0]"] ;
136 -> 137 ;
138 [label="gini = 0.0\nsamples = 1\nvalue = [0, 1]"] ;
136 -> 138 ;
139 [label="Loan_Amount_Term <= 330.0\ngini = 0.2\nsamples = 35\nvalue = [6, 50]"] ;
91 -> 139 ;
140 [label="gini = 0.0\nsamples = 6\nvalue = [0, 9]"] ;
139 -> 140 ;
141 [label="Property_Area_U <= 0.5\ngini = 0.2\nsamples = 29\nvalue = [6, 41]"] ;
139 -> 141 ;
142 [label="Dependents_1 <= 0.5\ngini = 0.3\nsamples = 14\nvalue = [4, 16]"] ;
141 -> 142 ;
143 [label="Self_Employed_ <= 0.5\ngini = 0.4\nsamples = 12\nvalue = [4, 13]"] ;
142 -> 143 ;
144 [label="LoanAmount_Log <= 5.2\ngini = 0.4\nsamples = 8\nvalue = [3, 8]"] ;
143 -> 144 ;
145 [label="LoanAmount_Log <= 5.1\ngini = 0.5\nsamples = 4\nvalue = [3, 2]"] ;
144 -> 145 ;
146 [label="gini = 0.0\nsamples = 1\nvalue = [0, 1]"] ;
145 -> 146 ;
147 [label="TotalIncome <= 9191.5\ngini = 0.4\nsamples = 3\nvalue = [3, 1]"] ;
145 -> 147 ;
148 [label="gini = 0.0\nsamples = 2\nvalue = [3, 0]"] ;
147 -> 148 ;
149 [label="gini = 0.0\nsamples = 1\nvalue = [0, 1]"] ;
147 -> 149 ;
150 [label="gini = 0.0\nsamples = 4\nvalue = [0, 6]"] ;
144 -> 150 ;
151 [label="Dependents_2 <= 0.5\ngini = 0.3\nsamples = 4\nvalue = [1, 5]"] ;
143 -> 151 ;
152 [label="gini = 0.0\nsamples = 1\nvalue = [0, 2]"] ;
151 -> 152 ;
153 [label="TotalIncome <= 7241.5\ngini = 0.4\nsamples = 3\nvalue = [1, 3]"] ;
151 -> 153 ;
154 [label="gini = 0.0\nsamples = 1\nvalue = [0, 2]"] ;
153 -> 154 ;
155 [label="LoanAmount_Log <= 5.1\ngini = 0.5\nsamples = 2\nvalue = [1, 1]"] ;
153 -> 155 ;
156 [label="gini = 0.0\nsamples = 1\nvalue = [0, 1]"] ;
155 -> 156 ;
157 [label="gini = 0.0\nsamples = 1\nvalue = [1, 0]"] ;
155 -> 157 ;
158 [label="gini = 0.0\nsamples = 2\nvalue = [0, 3]"] ;
142 -> 158 ;
159 [label="Dependents_1 <= 0.5\ngini = 0.1\nsamples = 15\nvalue = [2, 25]"] ;
141 -> 159 ;
160 [label="TotalIncome <= 8986.0\ngini = 0.2\nsamples = 12\nvalue = [2, 19]"] ;
159 -> 160 ;
161 [label="Dependents_2 <= 0.5\ngini = 0.3\nsamples = 6\nvalue = [2, 7]"] ;
160 -> 161 ;
162 [label="Self_Employed_ <= 0.5\ngini = 0.5\nsamples = 4\nvalue = [2, 3]"] ;
161 -> 162 ;
163 [label="LoanAmount_Log <= 5.3\ngini = 0.4\nsamples = 3\nvalue = [2, 1]"] ;
162 -> 163 ;
164 [label="gini = 0.0\nsamples = 1\nvalue = [0, 1]"] ;
163 -> 164 ;
165 [label="gini = 0.0\nsamples = 2\nvalue = [2, 0]"] ;
163 -> 165 ;
166 [label="gini = 0.0\nsamples = 1\nvalue = [0, 2]"] ;
162 -> 166 ;
167 [label="gini = 0.0\nsamples = 2\nvalue = [0, 4]"] ;
161 -> 167 ;
168 [label="gini = 0.0\nsamples = 6\nvalue = [0, 12]"] ;
160 -> 168 ;
169 [label="gini = 0.0\nsamples = 3\nvalue = [0, 6]"] ;
159 -> 169 ;
170 [label="Education_ <= 0.5\ngini = 0.1\nsamples = 59\nvalue = [4, 87]"] ;
90 -> 170 ;
171 [label="Dependents_0 <= 0.5\ngini = 0.1\nsamples = 47\nvalue = [4, 67]"] ;
170 -> 171 ;
172 [label="gini = 0.0\nsamples = 21\nvalue = [0, 34]"] ;
171 -> 172 ;
173 [label="TotalIncome <= 8284.5\ngini = 0.2\nsamples = 26\nvalue = [4, 33]"] ;
171 -> 173 ;
174 [label="gini = 0.0\nsamples = 14\nvalue = [0, 19]"] ;
173 -> 174 ;
175 [label="TotalIncome <= 9394.5\ngini = 0.3\nsamples = 12\nvalue = [4, 14]"] ;
173 -> 175 ;
176 [label="Loan_Amount_Term <= 270.0\ngini = 0.4\nsamples = 3\nvalue = [3, 1]"] ;
175 -> 176 ;
177 [label="gini = 0.0\nsamples = 1\nvalue = [1, 0]"] ;
176 -> 177 ;
178 [label="LoanAmount_Log <= 5.1\ngini = 0.4\nsamples = 2\nvalue = [2, 1]"] ;
176 -> 178 ;
179 [label="gini = 0.0\nsamples = 1\nvalue = [2, 0]"] ;
178 -> 179 ;
180 [label="gini = 0.0\nsamples = 1\nvalue = [0, 1]"] ;
178 -> 180 ;
181 [label="Self_Employed_ <= 0.5\ngini = 0.1\nsamples = 9\nvalue = [1, 13]"] ;
175 -> 181 ;
182 [label="LoanAmount_Log <= 5.5\ngini = 0.2\nsamples = 7\nvalue = [1, 11]"] ;
181 -> 182 ;
183 [label="gini = 0.0\nsamples = 4\nvalue = [0, 7]"] ;
182 -> 183 ;
184 [label="LoanAmount_Log <= 5.6\ngini = 0.3\nsamples = 3\nvalue = [1, 4]"] ;
182 -> 184 ;
185 [label="gini = 0.0\nsamples = 1\nvalue = [1, 0]"] ;
184 -> 185 ;
186 [label="gini = 0.0\nsamples = 2\nvalue = [0, 4]"] ;
184 -> 186 ;
187 [label="gini = 0.0\nsamples = 2\nvalue = [0, 2]"] ;
181 -> 187 ;
188 [label="gini = 0.0\nsamples = 12\nvalue = [0, 20]"] ;
170 -> 188 ;
}